|--- felsofoku_tertiary_education_a_nyilvantartott_allaskeresok_zaronapi_szama_2021_arany <= 0.32
|   |--- class: 0
|--- felsofoku_tertiary_education_a_nyilvantartott_allaskeresok_zaronapi_szama_2021_arany >  0.32
|   |--- nepsuruseg_fo_km2_lakonepesseg_dec_31_terulet_2020 <= 0.11
|   |   |--- class: 0
|   |--- nepsuruseg_fo_km2_lakonepesseg_dec_31_terulet_2020 >  0.11
|   |   |--- epitett_lakasok_udulok_nelkul_2020_telepules_arany <= 0.19
|   |   |   |--- class: 1
|   |   |--- epitett_lakasok_udulok_nelkul_2020_telepules_arany >  0.19
|   |   |   |--- class: 1
